digraph Tree {
node [shape=box, style="filled, rounded", color="black", fontname=helvetica] ;
edge [fontname=helvetica] ;
0 [label="Proline <= 727.5\nimpurity = 0.6509\nsamples = 77\nvalue = [42, 52, 30]\nclass = 2", fillcolor="#39e5811f"] ;
1 [label="Alcohol <= 12.525\nimpurity = 0.5018\nsamples = 49\nvalue = [3, 50, 29]\nclass = 2", fillcolor="#39e58165"] ;
0 -> 1 [labeldistance=2.5, labelangle=45, headlabel="True"] ;
2 [label="Proline <= 719.0\nimpurity = 0.0868\nsamples = 25\nvalue = [0, 42, 2]\nclass = 2", fillcolor="#39e581f3"] ;
1 -> 2 ;
3 [label="Flavanoids <= 0.53\nimpurity = 0.0454\nsamples = 24\nvalue = [0, 42, 1]\nclass = 2", fillcolor="#39e581f9"] ;
2 -> 3 ;
4 [label="impurity = 0.0\nsamples = 1\nvalue = [0, 0, 1]\nclass = 3", fillcolor="#8139e5ff"] ;
3 -> 4 ;
5 [label="impurity = 0.0\nsamples = 23\nvalue = [0, 42, 0]\nclass = 2", fillcolor="#39e581ff"] ;
3 -> 5 ;
6 [label="impurity = 0.0\nsamples = 1\nvalue = [0, 0, 1]\nclass = 3", fillcolor="#8139e5ff"] ;
2 -> 6 ;
7 [label="Malic acid <= 1.63\nimpurity = 0.4446\nsamples = 24\nvalue = [3, 8, 27]\nclass = 3", fillcolor="#8139e5a2"] ;
1 -> 7 ;
8 [label="impurity = 0.0\nsamples = 4\nvalue = [0, 6, 0]\nclass = 2", fillcolor="#39e581ff"] ;
7 -> 8 ;
9 [label="Proanthocyanins <= 1.59\nimpurity = 0.2754\nsamples = 20\nvalue = [3, 2, 27]\nclass = 3", fillcolor="#8139e5d3"] ;
7 -> 9 ;
10 [label="impurity = 0.0\nsamples = 17\nvalue = [0, 0, 27]\nclass = 3", fillcolor="#8139e5ff"] ;
9 -> 10 ;
11 [label="Hue <= 0.83\nimpurity = 0.48\nsamples = 3\nvalue = [3, 2, 0]\nclass = 1", fillcolor="#e5813955"] ;
9 -> 11 ;
12 [label="impurity = 0.0\nsamples = 1\nvalue = [3, 0, 0]\nclass = 1", fillcolor="#e58139ff"] ;
11 -> 12 ;
13 [label="impurity = 0.0\nsamples = 2\nvalue = [0, 2, 0]\nclass = 2", fillcolor="#39e581ff"] ;
11 -> 13 ;
14 [label="Total phenols <= 2.155\nimpurity = 0.1349\nsamples = 28\nvalue = [39, 2, 1]\nclass = 1", fillcolor="#e58139ec"] ;
0 -> 14 [labeldistance=2.5, labelangle=-45, headlabel="False"] ;
15 [label="Total phenols <= 1.85\nimpurity = 0.5\nsamples = 2\nvalue = [0, 1, 1]\nclass = 2", fillcolor="#39e58100"] ;
14 -> 15 ;
16 [label="impurity = 0.0\nsamples = 1\nvalue = [0, 0, 1]\nclass = 3", fillcolor="#8139e5ff"] ;
15 -> 16 ;
17 [label="impurity = 0.0\nsamples = 1\nvalue = [0, 1, 0]\nclass = 2", fillcolor="#39e581ff"] ;
15 -> 17 ;
18 [label="Flavanoids <= 2.275\nimpurity = 0.0487\nsamples = 26\nvalue = [39, 1, 0]\nclass = 1", fillcolor="#e58139f8"] ;
14 -> 18 ;
19 [label="impurity = 0.0\nsamples = 1\nvalue = [0, 1, 0]\nclass = 2", fillcolor="#39e581ff"] ;
18 -> 19 ;
20 [label="impurity = 0.0\nsamples = 25\nvalue = [39, 0, 0]\nclass = 1", fillcolor="#e58139ff"] ;
18 -> 20 ;
}