digraph Tree {
node [shape=box, style="filled, rounded", color="black", fontname=helvetica] ;
edge [fontname=helvetica] ;
0 [label="petal length (cm) <= 2.45\nimpurity = 0.6485\nsamples = 62\nvalue = [35, 45, 25]\nclass = setosa", fillcolor="#39e58124"] ;
1 [label="impurity = 0.0\nsamples = 20\nvalue = [35, 0, 0]\nclass = versicolor", fillcolor="#e58139ff"] ;
0 -> 1 [labeldistance=2.5, labelangle=45, headlabel="True"] ;
2 [label="petal length (cm) <= 5.15\nimpurity = 0.4592\nsamples = 42\nvalue = [0, 45, 25]\nclass = setosa", fillcolor="#39e58171"] ;
0 -> 2 [labeldistance=2.5, labelangle=-45, headlabel="False"] ;
3 [label="petal width (cm) <= 1.75\nimpurity = 0.233\nsamples = 30\nvalue = [0, 45, 7]\nclass = setosa", fillcolor="#39e581d7"] ;
2 -> 3 ;
4 [label="impurity = 0.0\nsamples = 24\nvalue = [0, 45, 0]\nclass = setosa", fillcolor="#39e581ff"] ;
3 -> 4 ;
5 [label="impurity = 0.0\nsamples = 6\nvalue = [0, 0, 7]\nclass = virginica", fillcolor="#8139e5ff"] ;
3 -> 5 ;
6 [label="impurity = 0.0\nsamples = 12\nvalue = [0, 0, 18]\nclass = virginica", fillcolor="#8139e5ff"] ;
2 -> 6 ;
}